digraph Tree {
node [shape=box] ;
0 [label="YearsAtCompany <= 1.5\ngini = 0.27\nsamples = 4410\nvalue = [3699, 711]"] ;
1 [label="Age <= 33.5\ngini = 0.454\nsamples = 645\nvalue = [420, 225]"] ;
0 -> 1 [labeldistance=2.5, labelangle=45, headlabel="True"] ;
2 [label="MonthlyIncome <= 112610.0\ngini = 0.497\nsamples = 306\nvalue = [141, 165]"] ;
1 -> 2 ;
3 [label="Age <= 22.5\ngini = 0.486\nsamples = 267\nvalue = [111, 156]"] ;
2 -> 3 ;
4 [label="MonthlyIncome <= 23140.0\ngini = 0.33\nsamples = 72\nvalue = [15, 57]"] ;
3 -> 4 ;
5 [label="gini = 0.0\nsamples = 3\nvalue = [3, 0]"] ;
4 -> 5 ;
6 [label="Age <= 18.5\ngini = 0.287\nsamples = 69\nvalue = [12, 57]"] ;
4 -> 6 ;
7 [label="DistanceFromHome <= 4.0\ngini = 0.49\nsamples = 21\nvalue = [9, 12]"] ;
6 -> 7 ;
8 [label="DistanceFromHome <= 1.5\ngini = 0.32\nsamples = 15\nvalue = [3, 12]"] ;
7 -> 8 ;
9 [label="MonthlyIncome <= 25275.0\ngini = 0.5\nsamples = 6\nvalue = [3, 3]"] ;
8 -> 9 ;
10 [label="gini = 0.0\nsamples = 3\nvalue = [0, 3]"] ;
9 -> 10 ;
11 [label="gini = 0.0\nsamples = 3\nvalue = [3, 0]"] ;
9 -> 11 ;
12 [label="gini = 0.0\nsamples = 9\nvalue = [0, 9]"] ;
8 -> 12 ;
13 [label="gini = 0.0\nsamples = 6\nvalue = [6, 0]"] ;
7 -> 13 ;
14 [label="MonthlyIncome <= 106255.0\ngini = 0.117\nsamples = 48\nvalue = [3, 45]"] ;
6 -> 14 ;
15 [label="gini = 0.0\nsamples = 45\nvalue = [0, 45]"] ;
14 -> 15 ;
16 [label="gini = 0.0\nsamples = 3\nvalue = [3, 0]"] ;
14 -> 16 ;
17 [label="MonthlyIncome <= 72530.0\ngini = 0.5\nsamples = 195\nvalue = [96, 99]"] ;
3 -> 17 ;
18 [label="DistanceFromHome <= 2.5\ngini = 0.499\nsamples = 171\nvalue = [90, 81]"] ;
17 -> 18 ;
19 [label="Age <= 27.5\ngini = 0.444\nsamples = 45\nvalue = [15, 30]"] ;
18 -> 19 ;
20 [label="Age <= 26.5\ngini = 0.5\nsamples = 24\nvalue = [12, 12]"] ;
19 -> 20 ;
21 [label="MonthlyIncome <= 21520.0\ngini = 0.32\nsamples = 15\nvalue = [3, 12]"] ;
20 -> 21 ;
22 [label="gini = 0.0\nsamples = 3\nvalue = [3, 0]"] ;
21 -> 22 ;
23 [label="gini = 0.0\nsamples = 12\nvalue = [0, 12]"] ;
21 -> 23 ;
24 [label="gini = 0.0\nsamples = 9\nvalue = [9, 0]"] ;
20 -> 24 ;
25 [label="DistanceFromHome <= 1.5\ngini = 0.245\nsamples = 21\nvalue = [3, 18]"] ;
19 -> 25 ;
26 [label="Age <= 28.5\ngini = 0.375\nsamples = 12\nvalue = [3, 9]"] ;
25 -> 26 ;
27 [label="gini = 0.0\nsamples = 6\nvalue = [0, 6]"] ;
26 -> 27 ;
28 [label="MonthlyIncome <= 27105.0\ngini = 0.5\nsamples = 6\nvalue = [3, 3]"] ;
26 -> 28 ;
29 [label="gini = 0.0\nsamples = 3\nvalue = [3, 0]"] ;
28 -> 29 ;
30 [label="gini = 0.0\nsamples = 3\nvalue = [0, 3]"] ;
28 -> 30 ;
31 [label="gini = 0.0\nsamples = 9\nvalue = [0, 9]"] ;
25 -> 31 ;
32 [label="MonthlyIncome <= 31000.0\ngini = 0.482\nsamples = 126\nvalue = [75, 51]"] ;
18 -> 32 ;
33 [label="DistanceFromHome <= 6.5\ngini = 0.49\nsamples = 42\nvalue = [18, 24]"] ;
32 -> 33 ;
34 [label="gini = 0.0\nsamples = 15\nvalue = [0, 15]"] ;
33 -> 34 ;
35 [label="MonthlyIncome <= 27170.0\ngini = 0.444\nsamples = 27\nvalue = [18, 9]"] ;
33 -> 35 ;
36 [label="gini = 0.0\nsamples = 18\nvalue = [18, 0]"] ;
35 -> 36 ;
37 [label="gini = 0.0\nsamples = 9\nvalue = [0, 9]"] ;
35 -> 37 ;
38 [label="DistanceFromHome <= 8.5\ngini = 0.436\nsamples = 84\nvalue = [57, 27]"] ;
32 -> 38 ;
39 [label="gini = 0.0\nsamples = 27\nvalue = [27, 0]"] ;
38 -> 39 ;
40 [label="Age <= 27.0\ngini = 0.499\nsamples = 57\nvalue = [30, 27]"] ;
38 -> 40 ;
41 [label="gini = 0.0\nsamples = 9\nvalue = [9, 0]"] ;
40 -> 41 ;
42 [label="MonthlyIncome <= 52150.0\ngini = 0.492\nsamples = 48\nvalue = [21, 27]"] ;
40 -> 42 ;
43 [label="Age <= 32.5\ngini = 0.469\nsamples = 24\nvalue = [15, 9]"] ;
42 -> 43 ;
44 [label="DistanceFromHome <= 11.5\ngini = 0.408\nsamples = 21\nvalue = [15, 6]"] ;
43 -> 44 ;
45 [label="gini = 0.0\nsamples = 9\nvalue = [9, 0]"] ;
44 -> 45 ;
46 [label="DistanceFromHome <= 16.5\ngini = 0.5\nsamples = 12\nvalue = [6, 6]"] ;
44 -> 46 ;
47 [label="gini = 0.0\nsamples = 6\nvalue = [0, 6]"] ;
46 -> 47 ;
48 [label="gini = 0.0\nsamples = 6\nvalue = [6, 0]"] ;
46 -> 48 ;
49 [label="gini = 0.0\nsamples = 3\nvalue = [0, 3]"] ;
43 -> 49 ;
50 [label="MonthlyIncome <= 61905.0\ngini = 0.375\nsamples = 24\nvalue = [6, 18]"] ;
42 -> 50 ;
51 [label="gini = 0.0\nsamples = 15\nvalue = [0, 15]"] ;
50 -> 51 ;
52 [label="DistanceFromHome <= 12.0\ngini = 0.444\nsamples = 9\nvalue = [6, 3]"] ;
50 -> 52 ;
53 [label="gini = 0.0\nsamples = 3\nvalue = [0, 3]"] ;
52 -> 53 ;
54 [label="gini = 0.0\nsamples = 6\nvalue = [6, 0]"] ;
52 -> 54 ;
55 [label="DistanceFromHome <= 1.5\ngini = 0.375\nsamples = 24\nvalue = [6, 18]"] ;
17 -> 55 ;
56 [label="MonthlyIncome <= 108025.0\ngini = 0.444\nsamples = 9\nvalue = [6, 3]"] ;
55 -> 56 ;
57 [label="gini = 0.0\nsamples = 6\nvalue = [6, 0]"] ;
56 -> 57 ;
58 [label="gini = 0.0\nsamples = 3\nvalue = [0, 3]"] ;
56 -> 58 ;
59 [label="gini = 0.0\nsamples = 15\nvalue = [0, 15]"] ;
55 -> 59 ;
60 [label="DistanceFromHome <= 5.0\ngini = 0.355\nsamples = 39\nvalue = [30, 9]"] ;
2 -> 60 ;
61 [label="gini = 0.0\nsamples = 21\nvalue = [21, 0]"] ;
60 -> 61 ;
62 [label="MonthlyIncome <= 161855.0\ngini = 0.5\nsamples = 18\nvalue = [9, 9]"] ;
60 -> 62 ;
63 [label="gini = 0.0\nsamples = 6\nvalue = [0, 6]"] ;
62 -> 63 ;
64 [label="Age <= 30.5\ngini = 0.375\nsamples = 12\nvalue = [9, 3]"] ;
62 -> 64 ;
65 [label="gini = 0.0\nsamples = 9\nvalue = [9, 0]"] ;
64 -> 65 ;
66 [label="gini = 0.0\nsamples = 3\nvalue = [0, 3]"] ;
64 -> 66 ;
67 [label="DistanceFromHome <= 2.5\ngini = 0.291\nsamples = 339\nvalue = [279, 60]"] ;
1 -> 67 ;
68 [label="MonthlyIncome <= 24545.0\ngini = 0.414\nsamples = 123\nvalue = [87, 36]"] ;
67 -> 68 ;
69 [label="gini = 0.0\nsamples = 21\nvalue = [21, 0]"] ;
68 -> 69 ;
70 [label="Age <= 39.5\ngini = 0.457\nsamples = 102\nvalue = [66, 36]"] ;
68 -> 70 ;
71 [label="Age <= 36.5\ngini = 0.497\nsamples = 39\nvalue = [18, 21]"] ;
70 -> 71 ;
72 [label="MonthlyIncome <= 26140.0\ngini = 0.408\nsamples = 21\nvalue = [15, 6]"] ;
71 -> 72 ;
73 [label="gini = 0.0\nsamples = 3\nvalue = [0, 3]"] ;
72 -> 73 ;
74 [label="MonthlyIncome <= 86465.0\ngini = 0.278\nsamples = 18\nvalue = [15, 3]"] ;
72 -> 74 ;
75 [label="gini = 0.0\nsamples = 9\nvalue = [9, 0]"] ;
74 -> 75 ;
76 [label="MonthlyIncome <= 142250.0\ngini = 0.444\nsamples = 9\nvalue = [6, 3]"] ;
74 -> 76 ;
77 [label="gini = 0.0\nsamples = 3\nvalue = [0, 3]"] ;
76 -> 77 ;
78 [label="gini = 0.0\nsamples = 6\nvalue = [6, 0]"] ;
76 -> 78 ;
79 [label="MonthlyIncome <= 76330.0\ngini = 0.278\nsamples = 18\nvalue = [3, 15]"] ;
71 -> 79 ;
80 [label="gini = 0.0\nsamples = 15\nvalue = [0, 15]"] ;
79 -> 80 ;
81 [label="gini = 0.0\nsamples = 3\nvalue = [3, 0]"] ;
79 -> 81 ;
82 [label="MonthlyIncome <= 45650.0\ngini = 0.363\nsamples = 63\nvalue = [48, 15]"] ;
70 -> 82 ;
83 [label="gini = 0.0\nsamples = 12\nvalue = [12, 0]"] ;
82 -> 83 ;
84 [label="MonthlyIncome <= 48310.0\ngini = 0.415\nsamples = 51\nvalue = [36, 15]"] ;
82 -> 84 ;
85 [label="gini = 0.0\nsamples = 3\nvalue = [0, 3]"] ;
84 -> 85 ;
86 [label="Age <= 44.5\ngini = 0.375\nsamples = 48\nvalue = [36, 12]"] ;
84 -> 86 ;
87 [label="Age <= 42.5\ngini = 0.49\nsamples = 21\nvalue = [12, 9]"] ;
86 -> 87 ;
88 [label="DistanceFromHome <= 1.5\ngini = 0.32\nsamples = 15\nvalue = [12, 3]"] ;
87 -> 88 ;
89 [label="gini = 0.0\nsamples = 12\nvalue = [12, 0]"] ;
88 -> 89 ;
90 [label="gini = 0.0\nsamples = 3\nvalue = [0, 3]"] ;
88 -> 90 ;
91 [label="gini = 0.0\nsamples = 6\nvalue = [0, 6]"] ;
87 -> 91 ;
92 [label="MonthlyIncome <= 146145.0\ngini = 0.198\nsamples = 27\nvalue = [24, 3]"] ;
86 -> 92 ;
93 [label="gini = 0.0\nsamples = 24\nvalue = [24, 0]"] ;
92 -> 93 ;
94 [label="gini = 0.0\nsamples = 3\nvalue = [0, 3]"] ;
92 -> 94 ;
95 [label="Age <= 57.0\ngini = 0.198\nsamples = 216\nvalue = [192, 24]"] ;
67 -> 95 ;
96 [label="MonthlyIncome <= 106980.0\ngini = 0.165\nsamples = 198\nvalue = [180, 18]"] ;
95 -> 96 ;
97 [label="MonthlyIncome <= 34145.0\ngini = 0.103\nsamples = 165\nvalue = [156, 9]"] ;
96 -> 97 ;
98 [label="gini = 0.0\nsamples = 57\nvalue = [57, 0]"] ;
97 -> 98 ;
99 [label="MonthlyIncome <= 35610.0\ngini = 0.153\nsamples = 108\nvalue = [99, 9]"] ;
97 -> 99 ;
100 [label="gini = 0.0\nsamples = 3\nvalue = [0, 3]"] ;
99 -> 100 ;
101 [label="Age <= 37.5\ngini = 0.108\nsamples = 105\nvalue = [99, 6]"] ;
99 -> 101 ;
102 [label="Age <= 35.5\ngini = 0.245\nsamples = 42\nvalue = [36, 6]"] ;
101 -> 102 ;
103 [label="gini = 0.0\nsamples = 21\nvalue = [21, 0]"] ;
102 -> 103 ;
104 [label="MonthlyIncome <= 62375.0\ngini = 0.408\nsamples = 21\nvalue = [15, 6]"] ;
102 -> 104 ;
105 [label="MonthlyIncome <= 44625.0\ngini = 0.5\nsamples = 12\nvalue = [6, 6]"] ;
104 -> 105 ;
106 [label="gini = 0.0\nsamples = 6\nvalue = [6, 0]"] ;
105 -> 106 ;
107 [label="gini = 0.0\nsamples = 6\nvalue = [0, 6]"] ;
105 -> 107 ;
108 [label="gini = 0.0\nsamples = 9\nvalue = [9, 0]"] ;
104 -> 108 ;
109 [label="gini = 0.0\nsamples = 63\nvalue = [63, 0]"] ;
101 -> 109 ;
110 [label="MonthlyIncome <= 119320.0\ngini = 0.397\nsamples = 33\nvalue = [24, 9]"] ;
96 -> 110 ;
111 [label="gini = 0.0\nsamples = 3\nvalue = [0, 3]"] ;
110 -> 111 ;
112 [label="DistanceFromHome <= 6.5\ngini = 0.32\nsamples = 30\nvalue = [24, 6]"] ;
110 -> 112 ;
113 [label="gini = 0.0\nsamples = 12\nvalue = [12, 0]"] ;
112 -> 113 ;
114 [label="MonthlyIncome <= 157090.0\ngini = 0.444\nsamples = 18\nvalue = [12, 6]"] ;
112 -> 114 ;
115 [label="gini = 0.0\nsamples = 3\nvalue = [0, 3]"] ;
114 -> 115 ;
116 [label="Age <= 40.5\ngini = 0.32\nsamples = 15\nvalue = [12, 3]"] ;
114 -> 116 ;
117 [label="gini = 0.0\nsamples = 12\nvalue = [12, 0]"] ;
116 -> 117 ;
118 [label="gini = 0.0\nsamples = 3\nvalue = [0, 3]"] ;
116 -> 118 ;
119 [label="DistanceFromHome <= 7.0\ngini = 0.444\nsamples = 18\nvalue = [12, 6]"] ;
95 -> 119 ;
120 [label="gini = 0.0\nsamples = 9\nvalue = [9, 0]"] ;
119 -> 120 ;
121 [label="Age <= 59.0\ngini = 0.444\nsamples = 9\nvalue = [3, 6]"] ;
119 -> 121 ;
122 [label="gini = 0.0\nsamples = 6\nvalue = [0, 6]"] ;
121 -> 122 ;
123 [label="gini = 0.0\nsamples = 3\nvalue = [3, 0]"] ;
121 -> 123 ;
124 [label="Age <= 33.5\ngini = 0.225\nsamples = 3765\nvalue = [3279, 486]"] ;
0 -> 124 [labeldistance=2.5, labelangle=-45, headlabel="False"] ;
125 [label="YearsAtCompany <= 3.5\ngini = 0.298\nsamples = 1416\nvalue = [1158, 258]"] ;
124 -> 125 ;
126 [label="DistanceFromHome <= 7.5\ngini = 0.397\nsamples = 384\nvalue = [279, 105]"] ;
125 -> 126 ;
127 [label="MonthlyIncome <= 73705.0\ngini = 0.292\nsamples = 186\nvalue = [153, 33]"] ;
126 -> 127 ;
128 [label="MonthlyIncome <= 59150.0\ngini = 0.353\nsamples = 144\nvalue = [111, 33]"] ;
127 -> 128 ;
129 [label="YearsAtCompany <= 2.5\ngini = 0.273\nsamples = 129\nvalue = [108, 21]"] ;
128 -> 129 ;
130 [label="MonthlyIncome <= 26350.0\ngini = 0.375\nsamples = 60\nvalue = [45, 15]"] ;
129 -> 130 ;
131 [label="gini = 0.0\nsamples = 15\nvalue = [15, 0]"] ;
130 -> 131 ;
132 [label="MonthlyIncome <= 27535.0\ngini = 0.444\nsamples = 45\nvalue = [30, 15]"] ;
130 -> 132 ;
133 [label="gini = 0.0\nsamples = 6\nvalue = [0, 6]"] ;
132 -> 133 ;
134 [label="Age <= 24.5\ngini = 0.355\nsamples = 39\nvalue = [30, 9]"] ;
132 -> 134 ;
135 [label="DistanceFromHome <= 1.5\ngini = 0.5\nsamples = 12\nvalue = [6, 6]"] ;
134 -> 135 ;
136 [label="gini = 0.0\nsamples = 3\nvalue = [3, 0]"] ;
135 -> 136 ;
137 [label="MonthlyIncome <= 41465.0\ngini = 0.444\nsamples = 9\nvalue = [3, 6]"] ;
135 -> 137 ;
138 [label="gini = 0.0\nsamples = 3\nvalue = [0, 3]"] ;
137 -> 138 ;
139 [label="DistanceFromHome <= 2.5\ngini = 0.5\nsamples = 6\nvalue = [3, 3]"] ;
137 -> 139 ;
140 [label="gini = 0.0\nsamples = 3\nvalue = [0, 3]"] ;
139 -> 140 ;
141 [label="gini = 0.0\nsamples = 3\nvalue = [3, 0]"] ;
139 -> 141 ;
142 [label="Age <= 28.0\ngini = 0.198\nsamples = 27\nvalue = [24, 3]"] ;
134 -> 142 ;
143 [label="gini = 0.0\nsamples = 15\nvalue = [15, 0]"] ;
142 -> 143 ;
144 [label="Age <= 30.0\ngini = 0.375\nsamples = 12\nvalue = [9, 3]"] ;
142 -> 144 ;
145 [label="gini = 0.0\nsamples = 3\nvalue = [0, 3]"] ;
144 -> 145 ;
146 [label="gini = 0.0\nsamples = 9\nvalue = [9, 0]"] ;
144 -> 146 ;
147 [label="DistanceFromHome <= 2.5\ngini = 0.159\nsamples = 69\nvalue = [63, 6]"] ;
129 -> 147 ;
148 [label="Age <= 28.5\ngini = 0.278\nsamples = 36\nvalue = [30, 6]"] ;
147 -> 148 ;
149 [label="DistanceFromHome <= 1.5\ngini = 0.444\nsamples = 18\nvalue = [12, 6]"] ;
148 -> 149 ;
150 [label="gini = 0.0\nsamples = 12\nvalue = [12, 0]"] ;
149 -> 150 ;
151 [label="gini = 0.0\nsamples = 6\nvalue = [0, 6]"] ;
149 -> 151 ;
152 [label="gini = 0.0\nsamples = 18\nvalue = [18, 0]"] ;
148 -> 152 ;
153 [label="gini = 0.0\nsamples = 33\nvalue = [33, 0]"] ;
147 -> 153 ;
154 [label="DistanceFromHome <= 2.0\ngini = 0.32\nsamples = 15\nvalue = [3, 12]"] ;
128 -> 154 ;
155 [label="gini = 0.0\nsamples = 3\nvalue = [3, 0]"] ;
154 -> 155 ;
156 [label="gini = 0.0\nsamples = 12\nvalue = [0, 12]"] ;
154 -> 156 ;
157 [label="gini = 0.0\nsamples = 42\nvalue = [42, 0]"] ;
127 -> 157 ;
158 [label="MonthlyIncome <= 115880.0\ngini = 0.463\nsamples = 198\nvalue = [126, 72]"] ;
126 -> 158 ;
159 [label="MonthlyIncome <= 34745.0\ngini = 0.431\nsamples = 162\nvalue = [111, 51]"] ;
158 -> 159 ;
160 [label="YearsAtCompany <= 2.5\ngini = 0.491\nsamples = 69\nvalue = [39, 30]"] ;
159 -> 160 ;
161 [label="DistanceFromHome <= 19.5\ngini = 0.498\nsamples = 45\nvalue = [21, 24]"] ;
160 -> 161 ;
162 [label="Age <= 30.0\ngini = 0.397\nsamples = 33\nvalue = [9, 24]"] ;
161 -> 162 ;
163 [label="Age <= 23.0\ngini = 0.219\nsamples = 24\nvalue = [3, 21]"] ;
162 -> 163 ;
164 [label="DistanceFromHome <= 12.0\ngini = 0.5\nsamples = 6\nvalue = [3, 3]"] ;
163 -> 164 ;
165 [label="gini = 0.0\nsamples = 3\nvalue = [0, 3]"] ;
164 -> 165 ;
166 [label="gini = 0.0\nsamples = 3\nvalue = [3, 0]"] ;
164 -> 166 ;
167 [label="gini = 0.0\nsamples = 18\nvalue = [0, 18]"] ;
163 -> 167 ;
168 [label="MonthlyIncome <= 28540.0\ngini = 0.444\nsamples = 9\nvalue = [6, 3]"] ;
162 -> 168 ;
169 [label="gini = 0.0\nsamples = 6\nvalue = [6, 0]"] ;
168 -> 169 ;
170 [label="gini = 0.0\nsamples = 3\nvalue = [0, 3]"] ;
168 -> 170 ;
171 [label="gini = 0.0\nsamples = 12\nvalue = [12, 0]"] ;
161 -> 171 ;
172 [label="DistanceFromHome <= 20.5\ngini = 0.375\nsamples = 24\nvalue = [18, 6]"] ;
160 -> 172 ;
173 [label="gini = 0.0\nsamples = 18\nvalue = [18, 0]"] ;
172 -> 173 ;
174 [label="gini = 0.0\nsamples = 6\nvalue = [0, 6]"] ;
172 -> 174 ;
175 [label="MonthlyIncome <= 49940.0\ngini = 0.35\nsamples = 93\nvalue = [72, 21]"] ;
159 -> 175 ;
176 [label="DistanceFromHome <= 15.5\ngini = 0.153\nsamples = 36\nvalue = [33, 3]"] ;
175 -> 176 ;
177 [label="DistanceFromHome <= 14.0\ngini = 0.32\nsamples = 15\nvalue = [12, 3]"] ;
176 -> 177 ;
178 [label="gini = 0.0\nsamples = 12\nvalue = [12, 0]"] ;
177 -> 178 ;
179 [label="gini = 0.0\nsamples = 3\nvalue = [0, 3]"] ;
177 -> 179 ;
180 [label="gini = 0.0\nsamples = 21\nvalue = [21, 0]"] ;
176 -> 180 ;
181 [label="MonthlyIncome <= 53585.0\ngini = 0.432\nsamples = 57\nvalue = [39, 18]"] ;
175 -> 181 ;
182 [label="gini = 0.0\nsamples = 6\nvalue = [0, 6]"] ;
181 -> 182 ;
183 [label="MonthlyIncome <= 96730.0\ngini = 0.36\nsamples = 51\nvalue = [39, 12]"] ;
181 -> 183 ;
184 [label="YearsAtCompany <= 2.5\ngini = 0.444\nsamples = 36\nvalue = [24, 12]"] ;
183 -> 184 ;
185 [label="MonthlyIncome <= 91245.0\ngini = 0.219\nsamples = 24\nvalue = [21, 3]"] ;
184 -> 185 ;
186 [label="gini = 0.0\nsamples = 21\nvalue = [21, 0]"] ;
185 -> 186 ;
187 [label="gini = 0.0\nsamples = 3\nvalue = [0, 3]"] ;
185 -> 187 ;
188 [label="MonthlyIncome <= 86825.0\ngini = 0.375\nsamples = 12\nvalue = [3, 9]"] ;
184 -> 188 ;
189 [label="gini = 0.0\nsamples = 9\nvalue = [0, 9]"] ;
188 -> 189 ;
190 [label="gini = 0.0\nsamples = 3\nvalue = [3, 0]"] ;
188 -> 190 ;
191 [label="gini = 0.0\nsamples = 15\nvalue = [15, 0]"] ;
183 -> 191 ;
192 [label="DistanceFromHome <= 9.5\ngini = 0.486\nsamples = 36\nvalue = [15, 21]"] ;
158 -> 192 ;
193 [label="gini = 0.0\nsamples = 9\nvalue = [0, 9]"] ;
192 -> 193 ;
194 [label="MonthlyIncome <= 135580.0\ngini = 0.494\nsamples = 27\nvalue = [15, 12]"] ;
192 -> 194 ;
195 [label="gini = 0.0\nsamples = 6\nvalue = [0, 6]"] ;
194 -> 195 ;
196 [label="MonthlyIncome <= 196390.0\ngini = 0.408\nsamples = 21\nvalue = [15, 6]"] ;
194 -> 196 ;
197 [label="DistanceFromHome <= 24.0\ngini = 0.278\nsamples = 18\nvalue = [15, 3]"] ;
196 -> 197 ;
198 [label="gini = 0.0\nsamples = 9\nvalue = [9, 0]"] ;
197 -> 198 ;
199 [label="Age <= 28.5\ngini = 0.444\nsamples = 9\nvalue = [6, 3]"] ;
197 -> 199 ;
200 [label="gini = 0.0\nsamples = 3\nvalue = [0, 3]"] ;
199 -> 200 ;
201 [label="gini = 0.0\nsamples = 6\nvalue = [6, 0]"] ;
199 -> 201 ;
202 [label="gini = 0.0\nsamples = 3\nvalue = [0, 3]"] ;
196 -> 202 ;
203 [label="DistanceFromHome <= 26.5\ngini = 0.253\nsamples = 1032\nvalue = [879, 153]"] ;
125 -> 203 ;
204 [label="DistanceFromHome <= 15.5\ngini = 0.237\nsamples = 981\nvalue = [846, 135]"] ;
203 -> 204 ;
205 [label="DistanceFromHome <= 9.5\ngini = 0.261\nsamples = 816\nvalue = [690, 126]"] ;
204 -> 205 ;
206 [label="DistanceFromHome <= 7.5\ngini = 0.239\nsamples = 648\nvalue = [558, 90]"] ;
205 -> 206 ;
207 [label="YearsAtCompany <= 9.5\ngini = 0.27\nsamples = 522\nvalue = [438, 84]"] ;
206 -> 207 ;
208 [label="DistanceFromHome <= 1.5\ngini = 0.243\nsamples = 423\nvalue = [363, 60]"] ;
207 -> 208 ;
209 [label="Age <= 32.5\ngini = 0.117\nsamples = 96\nvalue = [90, 6]"] ;
208 -> 209 ;
210 [label="YearsAtCompany <= 4.5\ngini = 0.069\nsamples = 84\nvalue = [81, 3]"] ;
209 -> 210 ;
211 [label="MonthlyIncome <= 97380.0\ngini = 0.32\nsamples = 15\nvalue = [12, 3]"] ;
210 -> 211 ;
212 [label="gini = 0.0\nsamples = 9\nvalue = [9, 0]"] ;
211 -> 212 ;
213 [label="MonthlyIncome <= 115160.0\ngini = 0.5\nsamples = 6\nvalue = [3, 3]"] ;
211 -> 213 ;
214 [label="gini = 0.0\nsamples = 3\nvalue = [0, 3]"] ;
213 -> 214 ;
215 [label="gini = 0.0\nsamples = 3\nvalue = [3, 0]"] ;
213 -> 215 ;
216 [label="gini = 0.0\nsamples = 69\nvalue = [69, 0]"] ;
210 -> 216 ;
217 [label="YearsAtCompany <= 7.5\ngini = 0.375\nsamples = 12\nvalue = [9, 3]"] ;
209 -> 217 ;
218 [label="gini = 0.0\nsamples = 9\nvalue = [9, 0]"] ;
217 -> 218 ;
219 [label="gini = 0.0\nsamples = 3\nvalue = [0, 3]"] ;
217 -> 219 ;
220 [label="DistanceFromHome <= 3.5\ngini = 0.276\nsamples = 327\nvalue = [273, 54]"] ;
208 -> 220 ;
221 [label="MonthlyIncome <= 72835.0\ngini = 0.332\nsamples = 171\nvalue = [135, 36]"] ;
220 -> 221 ;
222 [label="MonthlyIncome <= 67525.0\ngini = 0.381\nsamples = 129\nvalue = [96, 33]"] ;
221 -> 222 ;
223 [label="YearsAtCompany <= 7.5\ngini = 0.363\nsamples = 126\nvalue = [96, 30]"] ;
222 -> 223 ;
224 [label="Age <= 32.5\ngini = 0.415\nsamples = 102\nvalue = [72, 30]"] ;
223 -> 224 ;
225 [label="YearsAtCompany <= 4.5\ngini = 0.397\nsamples = 99\nvalue = [72, 27]"] ;
224 -> 225 ;
226 [label="gini = 0.0\nsamples = 12\nvalue = [12, 0]"] ;
225 -> 226 ;
227 [label="DistanceFromHome <= 2.5\ngini = 0.428\nsamples = 87\nvalue = [60, 27]"] ;
225 -> 227 ;
228 [label="MonthlyIncome <= 47125.0\ngini = 0.48\nsamples = 60\nvalue = [36, 24]"] ;
227 -> 228 ;
229 [label="Age <= 29.5\ngini = 0.415\nsamples = 51\nvalue = [36, 15]"] ;
228 -> 229 ;
230 [label="MonthlyIncome <= 20775.0\ngini = 0.278\nsamples = 36\nvalue = [30, 6]"] ;
229 -> 230 ;
231 [label="gini = 0.0\nsamples = 3\nvalue = [0, 3]"] ;
230 -> 231 ;
232 [label="Age <= 24.5\ngini = 0.165\nsamples = 33\nvalue = [30, 3]"] ;
230 -> 232 ;
233 [label="YearsAtCompany <= 5.5\ngini = 0.5\nsamples = 6\nvalue = [3, 3]"] ;
232 -> 233 ;
234 [label="gini = 0.0\nsamples = 3\nvalue = [3, 0]"] ;
233 -> 234 ;
235 [label="gini = 0.0\nsamples = 3\nvalue = [0, 3]"] ;
233 -> 235 ;
236 [label="gini = 0.0\nsamples = 27\nvalue = [27, 0]"] ;
232 -> 236 ;
237 [label="MonthlyIncome <= 39875.0\ngini = 0.48\nsamples = 15\nvalue = [6, 9]"] ;
229 -> 237 ;
238 [label="MonthlyIncome <= 25250.0\ngini = 0.444\nsamples = 9\nvalue = [6, 3]"] ;
237 -> 238 ;
239 [label="gini = 0.0\nsamples = 3\nvalue = [0, 3]"] ;
238 -> 239 ;
240 [label="gini = 0.0\nsamples = 6\nvalue = [6, 0]"] ;
238 -> 240 ;
241 [label="gini = 0.0\nsamples = 6\nvalue = [0, 6]"] ;
237 -> 241 ;
242 [label="gini = 0.0\nsamples = 9\nvalue = [0, 9]"] ;
228 -> 242 ;
243 [label="MonthlyIncome <= 29500.0\ngini = 0.198\nsamples = 27\nvalue = [24, 3]"] ;
227 -> 243 ;
244 [label="Age <= 27.0\ngini = 0.5\nsamples = 6\nvalue = [3, 3]"] ;
243 -> 244 ;
245 [label="gini = 0.0\nsamples = 3\nvalue = [3, 0]"] ;
244 -> 245 ;
246 [label="gini = 0.0\nsamples = 3\nvalue = [0, 3]"] ;
244 -> 246 ;
247 [label="gini = 0.0\nsamples = 21\nvalue = [21, 0]"] ;
243 -> 247 ;
248 [label="gini = 0.0\nsamples = 3\nvalue = [0, 3]"] ;
224 -> 248 ;
249 [label="gini = 0.0\nsamples = 24\nvalue = [24, 0]"] ;
223 -> 249 ;
250 [label="gini = 0.0\nsamples = 3\nvalue = [0, 3]"] ;
222 -> 250 ;
251 [label="YearsAtCompany <= 7.5\ngini = 0.133\nsamples = 42\nvalue = [39, 3]"] ;
221 -> 251 ;
252 [label="gini = 0.0\nsamples = 33\nvalue = [33, 0]"] ;
251 -> 252 ;
253 [label="Age <= 29.5\ngini = 0.444\nsamples = 9\nvalue = [6, 3]"] ;
251 -> 253 ;
254 [label="gini = 0.0\nsamples = 3\nvalue = [0, 3]"] ;
253 -> 254 ;
255 [label="gini = 0.0\nsamples = 6\nvalue = [6, 0]"] ;
253 -> 255 ;
256 [label="YearsAtCompany <= 4.5\ngini = 0.204\nsamples = 156\nvalue = [138, 18]"] ;
220 -> 256 ;
257 [label="Age <= 27.5\ngini = 0.408\nsamples = 42\nvalue = [30, 12]"] ;
256 -> 257 ;
258 [label="gini = 0.0\nsamples = 15\nvalue = [15, 0]"] ;
257 -> 258 ;
259 [label="MonthlyIncome <= 34790.0\ngini = 0.494\nsamples = 27\nvalue = [15, 12]"] ;
257 -> 259 ;
260 [label="gini = 0.0\nsamples = 6\nvalue = [0, 6]"] ;
259 -> 260 ;
261 [label="MonthlyIncome <= 65770.0\ngini = 0.408\nsamples = 21\nvalue = [15, 6]"] ;
259 -> 261 ;
262 [label="gini = 0.0\nsamples = 12\nvalue = [12, 0]"] ;
261 -> 262 ;
263 [label="Age <= 28.5\ngini = 0.444\nsamples = 9\nvalue = [3, 6]"] ;
261 -> 263 ;
264 [label="gini = 0.0\nsamples = 3\nvalue = [0, 3]"] ;
263 -> 264 ;
265 [label="Age <= 31.0\ngini = 0.5\nsamples = 6\nvalue = [3, 3]"] ;
263 -> 265 ;
266 [label="gini = 0.0\nsamples = 3\nvalue = [3, 0]"] ;
265 -> 266 ;
267 [label="gini = 0.0\nsamples = 3\nvalue = [0, 3]"] ;
265 -> 267 ;
268 [label="Age <= 23.5\ngini = 0.1\nsamples = 114\nvalue = [108, 6]"] ;
256 -> 268 ;
269 [label="DistanceFromHome <= 6.5\ngini = 0.5\nsamples = 6\nvalue = [3, 3]"] ;
268 -> 269 ;
270 [label="gini = 0.0\nsamples = 3\nvalue = [0, 3]"] ;
269 -> 270 ;
271 [label="gini = 0.0\nsamples = 3\nvalue = [3, 0]"] ;
269 -> 271 ;
272 [label="YearsAtCompany <= 8.5\ngini = 0.054\nsamples = 108\nvalue = [105, 3]"] ;
268 -> 272 ;
273 [label="gini = 0.0\nsamples = 96\nvalue = [96, 0]"] ;
272 -> 273 ;
274 [label="MonthlyIncome <= 79685.0\ngini = 0.375\nsamples = 12\nvalue = [9, 3]"] ;
272 -> 274 ;
275 [label="gini = 0.0\nsamples = 9\nvalue = [9, 0]"] ;
274 -> 275 ;
276 [label="gini = 0.0\nsamples = 3\nvalue = [0, 3]"] ;
274 -> 276 ;
277 [label="MonthlyIncome <= 25840.0\ngini = 0.367\nsamples = 99\nvalue = [75, 24]"] ;
207 -> 277 ;
278 [label="MonthlyIncome <= 21385.0\ngini = 0.5\nsamples = 12\nvalue = [6, 6]"] ;
277 -> 278 ;
279 [label="gini = 0.0\nsamples = 6\nvalue = [6, 0]"] ;
278 -> 279 ;
280 [label="gini = 0.0\nsamples = 6\nvalue = [0, 6]"] ;
278 -> 280 ;
281 [label="Age <= 29.5\ngini = 0.328\nsamples = 87\nvalue = [69, 18]"] ;
277 -> 281 ;
282 [label="gini = 0.0\nsamples = 15\nvalue = [15, 0]"] ;
281 -> 282 ;
283 [label="MonthlyIncome <= 96575.0\ngini = 0.375\nsamples = 72\nvalue = [54, 18]"] ;
281 -> 283 ;
284 [label="MonthlyIncome <= 60580.0\ngini = 0.444\nsamples = 45\nvalue = [30, 15]"] ;
283 -> 284 ;
285 [label="YearsAtCompany <= 13.5\ngini = 0.298\nsamples = 33\nvalue = [27, 6]"] ;
284 -> 285 ;
286 [label="Age <= 32.5\ngini = 0.18\nsamples = 30\nvalue = [27, 3]"] ;
285 -> 286 ;
287 [label="gini = 0.0\nsamples = 21\nvalue = [21, 0]"] ;
286 -> 287 ;
288 [label="DistanceFromHome <= 1.5\ngini = 0.444\nsamples = 9\nvalue = [6, 3]"] ;
286 -> 288 ;
289 [label="gini = 0.0\nsamples = 3\nvalue = [0, 3]"] ;
288 -> 289 ;
290 [label="gini = 0.0\nsamples = 6\nvalue = [6, 0]"] ;
288 -> 290 ;
291 [label="gini = 0.0\nsamples = 3\nvalue = [0, 3]"] ;
285 -> 291 ;
292 [label="DistanceFromHome <= 5.5\ngini = 0.375\nsamples = 12\nvalue = [3, 9]"] ;
284 -> 292 ;
293 [label="gini = 0.0\nsamples = 9\nvalue = [0, 9]"] ;
292 -> 293 ;
294 [label="gini = 0.0\nsamples = 3\nvalue = [3, 0]"] ;
292 -> 294 ;
295 [label="Age <= 30.5\ngini = 0.198\nsamples = 27\nvalue = [24, 3]"] ;
283 -> 295 ;
296 [label="MonthlyIncome <= 176750.0\ngini = 0.5\nsamples = 6\nvalue = [3, 3]"] ;
295 -> 296 ;
297 [label="gini = 0.0\nsamples = 3\nvalue = [3, 0]"] ;
296 -> 297 ;
298 [label="gini = 0.0\nsamples = 3\nvalue = [0, 3]"] ;
296 -> 298 ;
299 [label="gini = 0.0\nsamples = 21\nvalue = [21, 0]"] ;
295 -> 299 ;
300 [label="MonthlyIncome <= 152595.0\ngini = 0.091\nsamples = 126\nvalue = [120, 6]"] ;
206 -> 300 ;
301 [label="gini = 0.0\nsamples = 99\nvalue = [99, 0]"] ;
300 -> 301 ;
302 [label="YearsAtCompany <= 4.5\ngini = 0.346\nsamples = 27\nvalue = [21, 6]"] ;
300 -> 302 ;
303 [label="gini = 0.0\nsamples = 3\nvalue = [0, 3]"] ;
302 -> 303 ;
304 [label="MonthlyIncome <= 159555.0\ngini = 0.219\nsamples = 24\nvalue = [21, 3]"] ;
302 -> 304 ;
305 [label="gini = 0.0\nsamples = 3\nvalue = [0, 3]"] ;
304 -> 305 ;
306 [label="gini = 0.0\nsamples = 21\nvalue = [21, 0]"] ;
304 -> 306 ;
307 [label="MonthlyIncome <= 22370.0\ngini = 0.337\nsamples = 168\nvalue = [132, 36]"] ;
205 -> 307 ;
308 [label="YearsAtCompany <= 11.5\ngini = 0.444\nsamples = 9\nvalue = [3, 6]"] ;
307 -> 308 ;
309 [label="gini = 0.0\nsamples = 6\nvalue = [0, 6]"] ;
308 -> 309 ;
310 [label="gini = 0.0\nsamples = 3\nvalue = [3, 0]"] ;
308 -> 310 ;
311 [label="Age <= 26.5\ngini = 0.306\nsamples = 159\nvalue = [129, 30]"] ;
307 -> 311 ;
312 [label="DistanceFromHome <= 10.5\ngini = 0.469\nsamples = 24\nvalue = [15, 9]"] ;
311 -> 312 ;
313 [label="gini = 0.0\nsamples = 3\nvalue = [0, 3]"] ;
312 -> 313 ;
314 [label="DistanceFromHome <= 13.5\ngini = 0.408\nsamples = 21\nvalue = [15, 6]"] ;
312 -> 314 ;
315 [label="gini = 0.0\nsamples = 12\nvalue = [12, 0]"] ;
314 -> 315 ;
316 [label="Age <= 25.0\ngini = 0.444\nsamples = 9\nvalue = [3, 6]"] ;
314 -> 316 ;
317 [label="gini = 0.0\nsamples = 3\nvalue = [3, 0]"] ;
316 -> 317 ;
318 [label="gini = 0.0\nsamples = 6\nvalue = [0, 6]"] ;
316 -> 318 ;
319 [label="Age <= 30.5\ngini = 0.263\nsamples = 135\nvalue = [114, 21]"] ;
311 -> 319 ;
320 [label="YearsAtCompany <= 6.0\ngini = 0.087\nsamples = 66\nvalue = [63, 3]"] ;
319 -> 320 ;
321 [label="DistanceFromHome <= 10.5\ngini = 0.219\nsamples = 24\nvalue = [21, 3]"] ;
320 -> 321 ;
322 [label="gini = 0.0\nsamples = 3\nvalue = [0, 3]"] ;
321 -> 322 ;
323 [label="gini = 0.0\nsamples = 21\nvalue = [21, 0]"] ;
321 -> 323 ;
324 [label="gini = 0.0\nsamples = 42\nvalue = [42, 0]"] ;
320 -> 324 ;
325 [label="MonthlyIncome <= 78520.0\ngini = 0.386\nsamples = 69\nvalue = [51, 18]"] ;
319 -> 325 ;
326 [label="MonthlyIncome <= 47640.0\ngini = 0.459\nsamples = 42\nvalue = [27, 15]"] ;
325 -> 326 ;
327 [label="DistanceFromHome <= 14.5\ngini = 0.32\nsamples = 30\nvalue = [24, 6]"] ;
326 -> 327 ;
328 [label="Age <= 31.5\ngini = 0.198\nsamples = 27\nvalue = [24, 3]"] ;
327 -> 328 ;
329 [label="YearsAtCompany <= 8.0\ngini = 0.5\nsamples = 6\nvalue = [3, 3]"] ;
328 -> 329 ;
330 [label="gini = 0.0\nsamples = 3\nvalue = [0, 3]"] ;
329 -> 330 ;
331 [label="gini = 0.0\nsamples = 3\nvalue = [3, 0]"] ;
329 -> 331 ;
332 [label="gini = 0.0\nsamples = 21\nvalue = [21, 0]"] ;
328 -> 332 ;
333 [label="gini = 0.0\nsamples = 3\nvalue = [0, 3]"] ;
327 -> 333 ;
334 [label="MonthlyIncome <= 68285.0\ngini = 0.375\nsamples = 12\nvalue = [3, 9]"] ;
326 -> 334 ;
335 [label="gini = 0.0\nsamples = 6\nvalue = [0, 6]"] ;
334 -> 335 ;
336 [label="MonthlyIncome <= 70345.0\ngini = 0.5\nsamples = 6\nvalue = [3, 3]"] ;
334 -> 336 ;
337 [label="gini = 0.0\nsamples = 3\nvalue = [3, 0]"] ;
336 -> 337 ;
338 [label="gini = 0.0\nsamples = 3\nvalue = [0, 3]"] ;
336 -> 338 ;
339 [label="MonthlyIncome <= 139210.0\ngini = 0.198\nsamples = 27\nvalue = [24, 3]"] ;
325 -> 339 ;
340 [label="gini = 0.0\nsamples = 18\nvalue = [18, 0]"] ;
339 -> 340 ;
341 [label="MonthlyIncome <= 166770.0\ngini = 0.444\nsamples = 9\nvalue = [6, 3]"] ;
339 -> 341 ;
342 [label="gini = 0.0\nsamples = 3\nvalue = [0, 3]"] ;
341 -> 342 ;
343 [label="gini = 0.0\nsamples = 6\nvalue = [6, 0]"] ;
341 -> 343 ;
344 [label="MonthlyIncome <= 20570.0\ngini = 0.103\nsamples = 165\nvalue = [156, 9]"] ;
204 -> 344 ;
345 [label="DistanceFromHome <= 23.0\ngini = 0.5\nsamples = 6\nvalue = [3, 3]"] ;
344 -> 345 ;
346 [label="gini = 0.0\nsamples = 3\nvalue = [0, 3]"] ;
345 -> 346 ;
347 [label="gini = 0.0\nsamples = 3\nvalue = [3, 0]"] ;
345 -> 347 ;
348 [label="Age <= 25.5\ngini = 0.073\nsamples = 159\nvalue = [153, 6]"] ;
344 -> 348 ;
349 [label="YearsAtCompany <= 5.5\ngini = 0.32\nsamples = 15\nvalue = [12, 3]"] ;
348 -> 349 ;
350 [label="gini = 0.0\nsamples = 12\nvalue = [12, 0]"] ;
349 -> 350 ;
351 [label="gini = 0.0\nsamples = 3\nvalue = [0, 3]"] ;
349 -> 351 ;
352 [label="YearsAtCompany <= 9.5\ngini = 0.041\nsamples = 144\nvalue = [141, 3]"] ;
348 -> 352 ;
353 [label="gini = 0.0\nsamples = 105\nvalue = [105, 0]"] ;
352 -> 353 ;
354 [label="Age <= 28.5\ngini = 0.142\nsamples = 39\nvalue = [36, 3]"] ;
352 -> 354 ;
355 [label="gini = 0.0\nsamples = 3\nvalue = [0, 3]"] ;
354 -> 355 ;
356 [label="gini = 0.0\nsamples = 36\nvalue = [36, 0]"] ;
354 -> 356 ;
357 [label="YearsAtCompany <= 7.5\ngini = 0.457\nsamples = 51\nvalue = [33, 18]"] ;
203 -> 357 ;
358 [label="MonthlyIncome <= 46375.0\ngini = 0.48\nsamples = 30\nvalue = [12, 18]"] ;
357 -> 358 ;
359 [label="gini = 0.0\nsamples = 15\nvalue = [0, 15]"] ;
358 -> 359 ;
360 [label="DistanceFromHome <= 27.5\ngini = 0.32\nsamples = 15\nvalue = [12, 3]"] ;
358 -> 360 ;
361 [label="gini = 0.0\nsamples = 3\nvalue = [0, 3]"] ;
360 -> 361 ;
362 [label="gini = 0.0\nsamples = 12\nvalue = [12, 0]"] ;
360 -> 362 ;
363 [label="gini = 0.0\nsamples = 21\nvalue = [21, 0]"] ;
357 -> 363 ;
364 [label="MonthlyIncome <= 10300.0\ngini = 0.175\nsamples = 2349\nvalue = [2121, 228]"] ;
124 -> 364 ;
365 [label="gini = 0.0\nsamples = 3\nvalue = [0, 3]"] ;
364 -> 365 ;
366 [label="YearsAtCompany <= 38.5\ngini = 0.173\nsamples = 2346\nvalue = [2121, 225]"] ;
364 -> 366 ;
367 [label="DistanceFromHome <= 3.5\ngini = 0.172\nsamples = 2343\nvalue = [2121, 222]"] ;
366 -> 367 ;
368 [label="Age <= 36.5\ngini = 0.11\nsamples = 771\nvalue = [726, 45]"] ;
367 -> 368 ;
369 [label="YearsAtCompany <= 16.5\ngini = 0.183\nsamples = 177\nvalue = [159, 18]"] ;
368 -> 369 ;
370 [label="YearsAtCompany <= 7.5\ngini = 0.16\nsamples = 171\nvalue = [156, 15]"] ;
369 -> 370 ;
371 [label="MonthlyIncome <= 33350.0\ngini = 0.231\nsamples = 90\nvalue = [78, 12]"] ;
370 -> 371 ;
372 [label="gini = 0.0\nsamples = 36\nvalue = [36, 0]"] ;
371 -> 372 ;
373 [label="MonthlyIncome <= 41875.0\ngini = 0.346\nsamples = 54\nvalue = [42, 12]"] ;
371 -> 373 ;
374 [label="gini = 0.0\nsamples = 3\nvalue = [0, 3]"] ;
373 -> 374 ;
375 [label="MonthlyIncome <= 73570.0\ngini = 0.291\nsamples = 51\nvalue = [42, 9]"] ;
373 -> 375 ;
376 [label="DistanceFromHome <= 1.5\ngini = 0.444\nsamples = 18\nvalue = [12, 6]"] ;
375 -> 376 ;
377 [label="MonthlyIncome <= 53975.0\ngini = 0.444\nsamples = 9\nvalue = [3, 6]"] ;
376 -> 377 ;
378 [label="gini = 0.0\nsamples = 3\nvalue = [3, 0]"] ;
377 -> 378 ;
379 [label="gini = 0.0\nsamples = 6\nvalue = [0, 6]"] ;
377 -> 379 ;
380 [label="gini = 0.0\nsamples = 9\nvalue = [9, 0]"] ;
376 -> 380 ;
381 [label="YearsAtCompany <= 6.5\ngini = 0.165\nsamples = 33\nvalue = [30, 3]"] ;
375 -> 381 ;
382 [label="gini = 0.0\nsamples = 24\nvalue = [24, 0]"] ;
381 -> 382 ;
383 [label="Age <= 35.0\ngini = 0.444\nsamples = 9\nvalue = [6, 3]"] ;
381 -> 383 ;
384 [label="gini = 0.0\nsamples = 3\nvalue = [0, 3]"] ;
383 -> 384 ;
385 [label="gini = 0.0\nsamples = 6\nvalue = [6, 0]"] ;
383 -> 385 ;
386 [label="MonthlyIncome <= 23605.0\ngini = 0.071\nsamples = 81\nvalue = [78, 3]"] ;
370 -> 386 ;
387 [label="MonthlyIncome <= 23130.0\ngini = 0.444\nsamples = 9\nvalue = [6, 3]"] ;
386 -> 387 ;
388 [label="gini = 0.0\nsamples = 6\nvalue = [6, 0]"] ;
387 -> 388 ;
389 [label="gini = 0.0\nsamples = 3\nvalue = [0, 3]"] ;
387 -> 389 ;
390 [label="gini = 0.0\nsamples = 72\nvalue = [72, 0]"] ;
386 -> 390 ;
391 [label="MonthlyIncome <= 70440.0\ngini = 0.5\nsamples = 6\nvalue = [3, 3]"] ;
369 -> 391 ;
392 [label="gini = 0.0\nsamples = 3\nvalue = [0, 3]"] ;
391 -> 392 ;
393 [label="gini = 0.0\nsamples = 3\nvalue = [3, 0]"] ;
391 -> 393 ;
394 [label="MonthlyIncome <= 195720.0\ngini = 0.087\nsamples = 594\nvalue = [567, 27]"] ;
368 -> 394 ;
395 [label="MonthlyIncome <= 25795.0\ngini = 0.079\nsamples = 582\nvalue = [558, 24]"] ;
394 -> 395 ;
396 [label="MonthlyIncome <= 25715.0\ngini = 0.185\nsamples = 87\nvalue = [78, 9]"] ;
395 -> 396 ;
397 [label="YearsAtCompany <= 4.5\ngini = 0.133\nsamples = 84\nvalue = [78, 6]"] ;
396 -> 397 ;
398 [label="MonthlyIncome <= 25490.0\ngini = 0.444\nsamples = 9\nvalue = [6, 3]"] ;
397 -> 398 ;
399 [label="gini = 0.0\nsamples = 6\nvalue = [6, 0]"] ;
398 -> 399 ;
400 [label="gini = 0.0\nsamples = 3\nvalue = [0, 3]"] ;
398 -> 400 ;
401 [label="YearsAtCompany <= 20.5\ngini = 0.077\nsamples = 75\nvalue = [72, 3]"] ;
397 -> 401 ;
402 [label="gini = 0.0\nsamples = 60\nvalue = [60, 0]"] ;
401 -> 402 ;
403 [label="MonthlyIncome <= 23150.0\ngini = 0.32\nsamples = 15\nvalue = [12, 3]"] ;
401 -> 403 ;
404 [label="Age <= 40.5\ngini = 0.5\nsamples = 6\nvalue = [3, 3]"] ;
403 -> 404 ;
405 [label="gini = 0.0\nsamples = 3\nvalue = [3, 0]"] ;
404 -> 405 ;
406 [label="gini = 0.0\nsamples = 3\nvalue = [0, 3]"] ;
404 -> 406 ;
407 [label="gini = 0.0\nsamples = 9\nvalue = [9, 0]"] ;
403 -> 407 ;
408 [label="gini = 0.0\nsamples = 3\nvalue = [0, 3]"] ;
396 -> 408 ;
409 [label="MonthlyIncome <= 47700.0\ngini = 0.059\nsamples = 495\nvalue = [480, 15]"] ;
395 -> 409 ;
410 [label="gini = 0.0\nsamples = 201\nvalue = [201, 0]"] ;
409 -> 410 ;
411 [label="MonthlyIncome <= 47770.0\ngini = 0.097\nsamples = 294\nvalue = [279, 15]"] ;
409 -> 411 ;
412 [label="gini = 0.0\nsamples = 3\nvalue = [0, 3]"] ;
411 -> 412 ;
413 [label="MonthlyIncome <= 49245.0\ngini = 0.079\nsamples = 291\nvalue = [279, 12]"] ;
411 -> 413 ;
414 [label="Age <= 38.5\ngini = 0.375\nsamples = 12\nvalue = [9, 3]"] ;
413 -> 414 ;
415 [label="gini = 0.0\nsamples = 3\nvalue = [0, 3]"] ;
414 -> 415 ;
416 [label="gini = 0.0\nsamples = 9\nvalue = [9, 0]"] ;
414 -> 416 ;
417 [label="DistanceFromHome <= 1.5\ngini = 0.062\nsamples = 279\nvalue = [270, 9]"] ;
413 -> 417 ;
418 [label="YearsAtCompany <= 17.0\ngini = 0.133\nsamples = 126\nvalue = [117, 9]"] ;
417 -> 418 ;
419 [label="Age <= 45.5\ngini = 0.097\nsamples = 117\nvalue = [111, 6]"] ;
418 -> 419 ;
420 [label="gini = 0.0\nsamples = 66\nvalue = [66, 0]"] ;
419 -> 420 ;
421 [label="Age <= 48.0\ngini = 0.208\nsamples = 51\nvalue = [45, 6]"] ;
419 -> 421 ;
422 [label="MonthlyIncome <= 98355.0\ngini = 0.444\nsamples = 18\nvalue = [12, 6]"] ;
421 -> 422 ;
423 [label="gini = 0.0\nsamples = 6\nvalue = [0, 6]"] ;
422 -> 423 ;
424 [label="gini = 0.0\nsamples = 12\nvalue = [12, 0]"] ;
422 -> 424 ;
425 [label="gini = 0.0\nsamples = 33\nvalue = [33, 0]"] ;
421 -> 425 ;
426 [label="Age <= 40.0\ngini = 0.444\nsamples = 9\nvalue = [6, 3]"] ;
418 -> 426 ;
427 [label="gini = 0.0\nsamples = 3\nvalue = [0, 3]"] ;
426 -> 427 ;
428 [label="gini = 0.0\nsamples = 6\nvalue = [6, 0]"] ;
426 -> 428 ;
429 [label="gini = 0.0\nsamples = 153\nvalue = [153, 0]"] ;
417 -> 429 ;
430 [label="MonthlyIncome <= 196460.0\ngini = 0.375\nsamples = 12\nvalue = [9, 3]"] ;
394 -> 430 ;
431 [label="gini = 0.0\nsamples = 3\nvalue = [0, 3]"] ;
430 -> 431 ;
432 [label="gini = 0.0\nsamples = 9\nvalue = [9, 0]"] ;
430 -> 432 ;
433 [label="DistanceFromHome <= 24.5\ngini = 0.2\nsamples = 1572\nvalue = [1395, 177]"] ;
367 -> 433 ;
434 [label="MonthlyIncome <= 63480.0\ngini = 0.221\nsamples = 1374\nvalue = [1200, 174]"] ;
433 -> 434 ;
435 [label="MonthlyIncome <= 62460.0\ngini = 0.258\nsamples = 906\nvalue = [768, 138]"] ;
434 -> 435 ;
436 [label="DistanceFromHome <= 14.5\ngini = 0.246\nsamples = 879\nvalue = [753, 126]"] ;
435 -> 436 ;
437 [label="Age <= 52.5\ngini = 0.208\nsamples = 636\nvalue = [561, 75]"] ;
436 -> 437 ;
438 [label="Age <= 43.5\ngini = 0.232\nsamples = 537\nvalue = [465, 72]"] ;
437 -> 438 ;
439 [label="MonthlyIncome <= 54755.0\ngini = 0.172\nsamples = 378\nvalue = [342, 36]"] ;
438 -> 439 ;
440 [label="YearsAtCompany <= 2.5\ngini = 0.122\nsamples = 321\nvalue = [300, 21]"] ;
439 -> 440 ;
441 [label="Age <= 34.5\ngini = 0.375\nsamples = 24\nvalue = [18, 6]"] ;
440 -> 441 ;
442 [label="gini = 0.0\nsamples = 3\nvalue = [0, 3]"] ;
441 -> 442 ;
443 [label="Age <= 41.0\ngini = 0.245\nsamples = 21\nvalue = [18, 3]"] ;
441 -> 443 ;
444 [label="gini = 0.0\nsamples = 15\nvalue = [15, 0]"] ;
443 -> 444 ;
445 [label="DistanceFromHome <= 11.5\ngini = 0.5\nsamples = 6\nvalue = [3, 3]"] ;
443 -> 445 ;
446 [label="gini = 0.0\nsamples = 3\nvalue = [0, 3]"] ;
445 -> 446 ;
447 [label="gini = 0.0\nsamples = 3\nvalue = [3, 0]"] ;
445 -> 447 ;
448 [label="YearsAtCompany <= 13.5\ngini = 0.096\nsamples = 297\nvalue = [282, 15]"] ;
440 -> 448 ;
449 [label="Age <= 40.5\ngini = 0.067\nsamples = 258\nvalue = [249, 9]"] ;
448 -> 449 ;
450 [label="YearsAtCompany <= 9.5\ngini = 0.028\nsamples = 213\nvalue = [210, 3]"] ;
449 -> 450 ;
451 [label="gini = 0.0\nsamples = 168\nvalue = [168, 0]"] ;
450 -> 451 ;
452 [label="YearsAtCompany <= 10.5\ngini = 0.124\nsamples = 45\nvalue = [42, 3]"] ;
450 -> 452 ;
453 [label="DistanceFromHome <= 7.5\ngini = 0.278\nsamples = 18\nvalue = [15, 3]"] ;
452 -> 453 ;
454 [label="gini = 0.0\nsamples = 12\nvalue = [12, 0]"] ;
453 -> 454 ;
455 [label="MonthlyIncome <= 37250.0\ngini = 0.5\nsamples = 6\nvalue = [3, 3]"] ;
453 -> 455 ;
456 [label="gini = 0.0\nsamples = 3\nvalue = [0, 3]"] ;
455 -> 456 ;
457 [label="gini = 0.0\nsamples = 3\nvalue = [3, 0]"] ;
455 -> 457 ;
458 [label="gini = 0.0\nsamples = 27\nvalue = [27, 0]"] ;
452 -> 458 ;
459 [label="MonthlyIncome <= 42040.0\ngini = 0.231\nsamples = 45\nvalue = [39, 6]"] ;
449 -> 459 ;
460 [label="MonthlyIncome <= 21625.0\ngini = 0.142\nsamples = 39\nvalue = [36, 3]"] ;
459 -> 460 ;
461 [label="Age <= 42.0\ngini = 0.444\nsamples = 9\nvalue = [6, 3]"] ;
460 -> 461 ;
462 [label="gini = 0.0\nsamples = 3\nvalue = [0, 3]"] ;
461 -> 462 ;
463 [label="gini = 0.0\nsamples = 6\nvalue = [6, 0]"] ;
461 -> 463 ;
464 [label="gini = 0.0\nsamples = 30\nvalue = [30, 0]"] ;
460 -> 464 ;
465 [label="Age <= 42.5\ngini = 0.5\nsamples = 6\nvalue = [3, 3]"] ;
459 -> 465 ;
466 [label="gini = 0.0\nsamples = 3\nvalue = [3, 0]"] ;
465 -> 466 ;
467 [label="gini = 0.0\nsamples = 3\nvalue = [0, 3]"] ;
465 -> 467 ;
468 [label="DistanceFromHome <= 9.5\ngini = 0.26\nsamples = 39\nvalue = [33, 6]"] ;
448 -> 468 ;
469 [label="gini = 0.0\nsamples = 30\nvalue = [30, 0]"] ;
468 -> 469 ;
470 [label="MonthlyIncome <= 38445.0\ngini = 0.444\nsamples = 9\nvalue = [3, 6]"] ;
468 -> 470 ;
471 [label="gini = 0.0\nsamples = 6\nvalue = [0, 6]"] ;
470 -> 471 ;
472 [label="gini = 0.0\nsamples = 3\nvalue = [3, 0]"] ;
470 -> 472 ;
473 [label="MonthlyIncome <= 56660.0\ngini = 0.388\nsamples = 57\nvalue = [42, 15]"] ;
439 -> 473 ;
474 [label="Age <= 39.0\ngini = 0.375\nsamples = 12\nvalue = [3, 9]"] ;
473 -> 474 ;
475 [label="gini = 0.0\nsamples = 9\nvalue = [0, 9]"] ;
474 -> 475 ;
476 [label="gini = 0.0\nsamples = 3\nvalue = [3, 0]"] ;
474 -> 476 ;
477 [label="Age <= 40.5\ngini = 0.231\nsamples = 45\nvalue = [39, 6]"] ;
473 -> 477 ;
478 [label="MonthlyIncome <= 59500.0\ngini = 0.346\nsamples = 27\nvalue = [21, 6]"] ;
477 -> 478 ;
479 [label="gini = 0.0\nsamples = 9\nvalue = [9, 0]"] ;
478 -> 479 ;
480 [label="MonthlyIncome <= 61300.0\ngini = 0.444\nsamples = 18\nvalue = [12, 6]"] ;
478 -> 480 ;
481 [label="DistanceFromHome <= 6.5\ngini = 0.444\nsamples = 9\nvalue = [3, 6]"] ;
480 -> 481 ;
482 [label="gini = 0.0\nsamples = 3\nvalue = [3, 0]"] ;
481 -> 482 ;
483 [label="gini = 0.0\nsamples = 6\nvalue = [0, 6]"] ;
481 -> 483 ;
484 [label="gini = 0.0\nsamples = 9\nvalue = [9, 0]"] ;
480 -> 484 ;
485 [label="gini = 0.0\nsamples = 18\nvalue = [18, 0]"] ;
477 -> 485 ;
486 [label="MonthlyIncome <= 16355.0\ngini = 0.35\nsamples = 159\nvalue = [123, 36]"] ;
438 -> 486 ;
487 [label="gini = 0.0\nsamples = 6\nvalue = [0, 6]"] ;
486 -> 487 ;
488 [label="MonthlyIncome <= 49205.0\ngini = 0.315\nsamples = 153\nvalue = [123, 30]"] ;
486 -> 488 ;
489 [label="MonthlyIncome <= 42840.0\ngini = 0.375\nsamples = 120\nvalue = [90, 30]"] ;
488 -> 489 ;
490 [label="MonthlyIncome <= 28775.0\ngini = 0.231\nsamples = 90\nvalue = [78, 12]"] ;
489 -> 490 ;
491 [label="MonthlyIncome <= 26810.0\ngini = 0.332\nsamples = 57\nvalue = [45, 12]"] ;
490 -> 491 ;
492 [label="Age <= 48.5\ngini = 0.124\nsamples = 45\nvalue = [42, 3]"] ;
491 -> 492 ;
493 [label="gini = 0.0\nsamples = 30\nvalue = [30, 0]"] ;
492 -> 493 ;
494 [label="Age <= 49.5\ngini = 0.32\nsamples = 15\nvalue = [12, 3]"] ;
492 -> 494 ;
495 [label="gini = 0.0\nsamples = 3\nvalue = [0, 3]"] ;
494 -> 495 ;
496 [label="gini = 0.0\nsamples = 12\nvalue = [12, 0]"] ;
494 -> 496 ;
497 [label="Age <= 49.5\ngini = 0.375\nsamples = 12\nvalue = [3, 9]"] ;
491 -> 497 ;
498 [label="gini = 0.0\nsamples = 9\nvalue = [0, 9]"] ;
497 -> 498 ;
499 [label="gini = 0.0\nsamples = 3\nvalue = [3, 0]"] ;
497 -> 499 ;
500 [label="gini = 0.0\nsamples = 33\nvalue = [33, 0]"] ;
490 -> 500 ;
501 [label="MonthlyIncome <= 45865.0\ngini = 0.48\nsamples = 30\nvalue = [12, 18]"] ;
489 -> 501 ;
502 [label="MonthlyIncome <= 43980.0\ngini = 0.32\nsamples = 15\nvalue = [3, 12]"] ;
501 -> 502 ;
503 [label="DistanceFromHome <= 8.0\ngini = 0.5\nsamples = 6\nvalue = [3, 3]"] ;
502 -> 503 ;
504 [label="gini = 0.0\nsamples = 3\nvalue = [3, 0]"] ;
503 -> 504 ;
505 [label="gini = 0.0\nsamples = 3\nvalue = [0, 3]"] ;
503 -> 505 ;
506 [label="gini = 0.0\nsamples = 9\nvalue = [0, 9]"] ;
502 -> 506 ;
507 [label="YearsAtCompany <= 9.0\ngini = 0.48\nsamples = 15\nvalue = [9, 6]"] ;
501 -> 507 ;
508 [label="Age <= 51.0\ngini = 0.444\nsamples = 9\nvalue = [3, 6]"] ;
507 -> 508 ;
509 [label="gini = 0.0\nsamples = 3\nvalue = [0, 3]"] ;
508 -> 509 ;
510 [label="YearsAtCompany <= 6.5\ngini = 0.5\nsamples = 6\nvalue = [3, 3]"] ;
508 -> 510 ;
511 [label="gini = 0.0\nsamples = 3\nvalue = [3, 0]"] ;
510 -> 511 ;
512 [label="gini = 0.0\nsamples = 3\nvalue = [0, 3]"] ;
510 -> 512 ;
513 [label="gini = 0.0\nsamples = 6\nvalue = [6, 0]"] ;
507 -> 513 ;
514 [label="gini = 0.0\nsamples = 33\nvalue = [33, 0]"] ;
488 -> 514 ;
515 [label="MonthlyIncome <= 40545.0\ngini = 0.059\nsamples = 99\nvalue = [96, 3]"] ;
437 -> 515 ;
516 [label="gini = 0.0\nsamples = 69\nvalue = [69, 0]"] ;
515 -> 516 ;
517 [label="MonthlyIncome <= 41680.0\ngini = 0.18\nsamples = 30\nvalue = [27, 3]"] ;
515 -> 517 ;
518 [label="gini = 0.0\nsamples = 3\nvalue = [0, 3]"] ;
517 -> 518 ;
519 [label="gini = 0.0\nsamples = 27\nvalue = [27, 0]"] ;
517 -> 519 ;
520 [label="DistanceFromHome <= 18.5\ngini = 0.332\nsamples = 243\nvalue = [192, 51]"] ;
436 -> 520 ;
521 [label="YearsAtCompany <= 4.5\ngini = 0.485\nsamples = 87\nvalue = [51, 36]"] ;
520 -> 521 ;
522 [label="DistanceFromHome <= 15.5\ngini = 0.32\nsamples = 15\nvalue = [3, 12]"] ;
521 -> 522 ;
523 [label="gini = 0.0\nsamples = 3\nvalue = [3, 0]"] ;
522 -> 523 ;
524 [label="gini = 0.0\nsamples = 12\nvalue = [0, 12]"] ;
522 -> 524 ;
525 [label="MonthlyIncome <= 58955.0\ngini = 0.444\nsamples = 72\nvalue = [48, 24]"] ;
521 -> 525 ;
526 [label="Age <= 54.5\ngini = 0.423\nsamples = 69\nvalue = [48, 21]"] ;
525 -> 526 ;
527 [label="MonthlyIncome <= 22565.0\ngini = 0.375\nsamples = 60\nvalue = [45, 15]"] ;
526 -> 527 ;
528 [label="MonthlyIncome <= 15925.0\ngini = 0.444\nsamples = 9\nvalue = [3, 6]"] ;
527 -> 528 ;
529 [label="gini = 0.0\nsamples = 3\nvalue = [3, 0]"] ;
528 -> 529 ;
530 [label="gini = 0.0\nsamples = 6\nvalue = [0, 6]"] ;
528 -> 530 ;
531 [label="Age <= 41.5\ngini = 0.291\nsamples = 51\nvalue = [42, 9]"] ;
527 -> 531 ;
532 [label="MonthlyIncome <= 54390.0\ngini = 0.397\nsamples = 33\nvalue = [24, 9]"] ;
531 -> 532 ;
533 [label="Age <= 38.5\ngini = 0.32\nsamples = 30\nvalue = [24, 6]"] ;
532 -> 533 ;
534 [label="gini = 0.0\nsamples = 15\nvalue = [15, 0]"] ;
533 -> 534 ;
535 [label="YearsAtCompany <= 8.5\ngini = 0.48\nsamples = 15\nvalue = [9, 6]"] ;
533 -> 535 ;
536 [label="MonthlyIncome <= 32070.0\ngini = 0.444\nsamples = 9\nvalue = [3, 6]"] ;
535 -> 536 ;
537 [label="gini = 0.0\nsamples = 6\nvalue = [0, 6]"] ;
536 -> 537 ;
538 [label="gini = 0.0\nsamples = 3\nvalue = [3, 0]"] ;
536 -> 538 ;
539 [label="gini = 0.0\nsamples = 6\nvalue = [6, 0]"] ;
535 -> 539 ;
540 [label="gini = 0.0\nsamples = 3\nvalue = [0, 3]"] ;
532 -> 540 ;
541 [label="gini = 0.0\nsamples = 18\nvalue = [18, 0]"] ;
531 -> 541 ;
542 [label="Age <= 58.0\ngini = 0.444\nsamples = 9\nvalue = [3, 6]"] ;
526 -> 542 ;
543 [label="gini = 0.0\nsamples = 6\nvalue = [0, 6]"] ;
542 -> 543 ;
544 [label="gini = 0.0\nsamples = 3\nvalue = [3, 0]"] ;
542 -> 544 ;
545 [label="gini = 0.0\nsamples = 3\nvalue = [0, 3]"] ;
525 -> 545 ;
546 [label="YearsAtCompany <= 26.5\ngini = 0.174\nsamples = 156\nvalue = [141, 15]"] ;
520 -> 546 ;
547 [label="MonthlyIncome <= 21010.0\ngini = 0.117\nsamples = 144\nvalue = [135, 9]"] ;
546 -> 547 ;
548 [label="MonthlyIncome <= 20660.0\ngini = 0.375\nsamples = 12\nvalue = [9, 3]"] ;
547 -> 548 ;
549 [label="gini = 0.0\nsamples = 9\nvalue = [9, 0]"] ;
548 -> 549 ;
550 [label="gini = 0.0\nsamples = 3\nvalue = [0, 3]"] ;
548 -> 550 ;
551 [label="YearsAtCompany <= 18.5\ngini = 0.087\nsamples = 132\nvalue = [126, 6]"] ;
547 -> 551 ;
552 [label="MonthlyIncome <= 26590.0\ngini = 0.051\nsamples = 114\nvalue = [111, 3]"] ;
551 -> 552 ;
553 [label="MonthlyIncome <= 26285.0\ngini = 0.153\nsamples = 36\nvalue = [33, 3]"] ;
552 -> 553 ;
554 [label="gini = 0.0\nsamples = 33\nvalue = [33, 0]"] ;
553 -> 554 ;
555 [label="gini = 0.0\nsamples = 3\nvalue = [0, 3]"] ;
553 -> 555 ;
556 [label="gini = 0.0\nsamples = 78\nvalue = [78, 0]"] ;
552 -> 556 ;
557 [label="Age <= 51.0\ngini = 0.278\nsamples = 18\nvalue = [15, 3]"] ;
551 -> 557 ;
558 [label="gini = 0.0\nsamples = 12\nvalue = [12, 0]"] ;
557 -> 558 ;
559 [label="DistanceFromHome <= 21.5\ngini = 0.5\nsamples = 6\nvalue = [3, 3]"] ;
557 -> 559 ;
560 [label="gini = 0.0\nsamples = 3\nvalue = [0, 3]"] ;
559 -> 560 ;
561 [label="gini = 0.0\nsamples = 3\nvalue = [3, 0]"] ;
559 -> 561 ;
562 [label="Age <= 52.5\ngini = 0.5\nsamples = 12\nvalue = [6, 6]"] ;
546 -> 562 ;
563 [label="gini = 0.0\nsamples = 6\nvalue = [6, 0]"] ;
562 -> 563 ;
564 [label="gini = 0.0\nsamples = 6\nvalue = [0, 6]"] ;
562 -> 564 ;
565 [label="Age <= 45.5\ngini = 0.494\nsamples = 27\nvalue = [15, 12]"] ;
435 -> 565 ;
566 [label="MonthlyIncome <= 63280.0\ngini = 0.375\nsamples = 12\nvalue = [3, 9]"] ;
565 -> 566 ;
567 [label="gini = 0.0\nsamples = 9\nvalue = [0, 9]"] ;
566 -> 567 ;
568 [label="gini = 0.0\nsamples = 3\nvalue = [3, 0]"] ;
566 -> 568 ;
569 [label="MonthlyIncome <= 63350.0\ngini = 0.32\nsamples = 15\nvalue = [12, 3]"] ;
565 -> 569 ;
570 [label="gini = 0.0\nsamples = 9\nvalue = [9, 0]"] ;
569 -> 570 ;
571 [label="DistanceFromHome <= 8.0\ngini = 0.5\nsamples = 6\nvalue = [3, 3]"] ;
569 -> 571 ;
572 [label="gini = 0.0\nsamples = 3\nvalue = [3, 0]"] ;
571 -> 572 ;
573 [label="gini = 0.0\nsamples = 3\nvalue = [0, 3]"] ;
571 -> 573 ;
574 [label="Age <= 48.5\ngini = 0.142\nsamples = 468\nvalue = [432, 36]"] ;
434 -> 574 ;
575 [label="YearsAtCompany <= 2.5\ngini = 0.103\nsamples = 384\nvalue = [363, 21]"] ;
574 -> 575 ;
576 [label="MonthlyIncome <= 137390.0\ngini = 0.355\nsamples = 39\nvalue = [30, 9]"] ;
575 -> 576 ;
577 [label="MonthlyIncome <= 67785.0\ngini = 0.18\nsamples = 30\nvalue = [27, 3]"] ;
576 -> 577 ;
578 [label="gini = 0.0\nsamples = 3\nvalue = [0, 3]"] ;
577 -> 578 ;
579 [label="gini = 0.0\nsamples = 27\nvalue = [27, 0]"] ;
577 -> 579 ;
580 [label="Age <= 39.5\ngini = 0.444\nsamples = 9\nvalue = [3, 6]"] ;
576 -> 580 ;
581 [label="gini = 0.0\nsamples = 6\nvalue = [0, 6]"] ;
580 -> 581 ;
582 [label="gini = 0.0\nsamples = 3\nvalue = [3, 0]"] ;
580 -> 582 ;
583 [label="DistanceFromHome <= 23.5\ngini = 0.067\nsamples = 345\nvalue = [333, 12]"] ;
575 -> 583 ;
584 [label="YearsAtCompany <= 21.5\ngini = 0.052\nsamples = 336\nvalue = [327, 9]"] ;
583 -> 584 ;
585 [label="Age <= 34.5\ngini = 0.036\nsamples = 324\nvalue = [318, 6]"] ;
584 -> 585 ;
586 [label="DistanceFromHome <= 14.5\ngini = 0.18\nsamples = 30\nvalue = [27, 3]"] ;
585 -> 586 ;
587 [label="gini = 0.0\nsamples = 27\nvalue = [27, 0]"] ;
586 -> 587 ;
588 [label="gini = 0.0\nsamples = 3\nvalue = [0, 3]"] ;
586 -> 588 ;
589 [label="MonthlyIncome <= 86570.0\ngini = 0.02\nsamples = 294\nvalue = [291, 3]"] ;
585 -> 589 ;
590 [label="MonthlyIncome <= 86030.0\ngini = 0.057\nsamples = 102\nvalue = [99, 3]"] ;
589 -> 590 ;
591 [label="gini = 0.0\nsamples = 99\nvalue = [99, 0]"] ;
590 -> 591 ;
592 [label="gini = 0.0\nsamples = 3\nvalue = [0, 3]"] ;
590 -> 592 ;
593 [label="gini = 0.0\nsamples = 192\nvalue = [192, 0]"] ;
589 -> 593 ;
594 [label="Age <= 41.5\ngini = 0.375\nsamples = 12\nvalue = [9, 3]"] ;
584 -> 594 ;
595 [label="gini = 0.0\nsamples = 3\nvalue = [0, 3]"] ;
594 -> 595 ;
596 [label="gini = 0.0\nsamples = 9\nvalue = [9, 0]"] ;
594 -> 596 ;
597 [label="Age <= 36.5\ngini = 0.444\nsamples = 9\nvalue = [6, 3]"] ;
583 -> 597 ;
598 [label="gini = 0.0\nsamples = 6\nvalue = [6, 0]"] ;
597 -> 598 ;
599 [label="gini = 0.0\nsamples = 3\nvalue = [0, 3]"] ;
597 -> 599 ;
600 [label="DistanceFromHome <= 7.5\ngini = 0.293\nsamples = 84\nvalue = [69, 15]"] ;
574 -> 600 ;
601 [label="DistanceFromHome <= 6.5\ngini = 0.49\nsamples = 21\nvalue = [12, 9]"] ;
600 -> 601 ;
602 [label="MonthlyIncome <= 166970.0\ngini = 0.32\nsamples = 15\nvalue = [12, 3]"] ;
601 -> 602 ;
603 [label="gini = 0.0\nsamples = 12\nvalue = [12, 0]"] ;
602 -> 603 ;
604 [label="gini = 0.0\nsamples = 3\nvalue = [0, 3]"] ;
602 -> 604 ;
605 [label="gini = 0.0\nsamples = 6\nvalue = [0, 6]"] ;
601 -> 605 ;
606 [label="MonthlyIncome <= 163650.0\ngini = 0.172\nsamples = 63\nvalue = [57, 6]"] ;
600 -> 606 ;
607 [label="gini = 0.0\nsamples = 42\nvalue = [42, 0]"] ;
606 -> 607 ;
608 [label="MonthlyIncome <= 177640.0\ngini = 0.408\nsamples = 21\nvalue = [15, 6]"] ;
606 -> 608 ;
609 [label="gini = 0.0\nsamples = 3\nvalue = [0, 3]"] ;
608 -> 609 ;
610 [label="YearsAtCompany <= 8.5\ngini = 0.278\nsamples = 18\nvalue = [15, 3]"] ;
608 -> 610 ;
611 [label="gini = 0.0\nsamples = 15\nvalue = [15, 0]"] ;
610 -> 611 ;
612 [label="gini = 0.0\nsamples = 3\nvalue = [0, 3]"] ;
610 -> 612 ;
613 [label="Age <= 34.5\ngini = 0.03\nsamples = 198\nvalue = [195, 3]"] ;
433 -> 613 ;
614 [label="MonthlyIncome <= 39430.0\ngini = 0.18\nsamples = 30\nvalue = [27, 3]"] ;
613 -> 614 ;
615 [label="MonthlyIncome <= 29755.0\ngini = 0.5\nsamples = 6\nvalue = [3, 3]"] ;
614 -> 615 ;
616 [label="gini = 0.0\nsamples = 3\nvalue = [3, 0]"] ;
615 -> 616 ;
617 [label="gini = 0.0\nsamples = 3\nvalue = [0, 3]"] ;
615 -> 617 ;
618 [label="gini = 0.0\nsamples = 24\nvalue = [24, 0]"] ;
614 -> 618 ;
619 [label="gini = 0.0\nsamples = 168\nvalue = [168, 0]"] ;
613 -> 619 ;
620 [label="gini = 0.0\nsamples = 3\nvalue = [0, 3]"] ;
366 -> 620 ;
}